digraph Tree {
node [shape=box, style="filled, rounded", color="black", fontname="helvetica"] ;
edge [fontname="helvetica"] ;
0 [label="petal length (cm) <= 4.85\ngini = 0.66\nsamples = 89\nvalue = [44, 52, 54]\nclass = virginica", fillcolor="#fcfbfe"] ;
1 [label="petal width (cm) <= 0.7\ngini = 0.52\nsamples = 60\nvalue = [44, 52, 2]\nclass = versicolor", fillcolor="#e2fbec"] ;
0 -> 1 [labeldistance=2.5, labelangle=45, headlabel="True"] ;
2 [label="gini = 0.0\nsamples = 26\nvalue = [44, 0, 0]\nclass = setosa", fillcolor="#e58139"] ;
1 -> 2 ;
3 [label="petal width (cm) <= 1.65\ngini = 0.07\nsamples = 34\nvalue = [0, 52, 2]\nclass = versicolor", fillcolor="#41e686"] ;
1 -> 3 ;
4 [label="gini = 0.0\nsamples = 32\nvalue = [0, 52, 0]\nclass = versicolor", fillcolor="#39e581"] ;
3 -> 4 ;
5 [label="gini = 0.0\nsamples = 2\nvalue = [0, 0, 2]\nclass = virginica", fillcolor="#8139e5"] ;
3 -> 5 ;
6 [label="gini = 0.0\nsamples = 29\nvalue = [0, 0, 52]\nclass = virginica", fillcolor="#8139e5"] ;
0 -> 6 [labeldistance=2.5, labelangle=-45, headlabel="False"] ;
}